-0.398438 1.218750 -1.656250 -0.283203 4.796875
2.324219 0.122559 -0.710938 0.816406 -0.710938
-0.382812 -0.737305 5.925781 -0.485352 -3.476562
-1.164062 -1.005859 -1.750000 -1.382812 -0.546875
-3.265625 0.152344 -14.289062 6.136719 6.359375
11.750000 8.944336 4.052734 -0.451172 8.851562
3.453125 9.242188 23.343750 -5.609375 1.937500
-23.562500 -18.414307 -5.929688 -2.132812 -21.343750
3.562500 -24.109375 -21.562500 -3.757812 -9.921875
23.875000 19.652344 6.578125 8.218750 20.187500
-24.875000 28.007812 7.875000 9.203125 -36.500000
-5.625000 -14.208984 -7.562500 -15.359375 12.750000
49.125000 -23.390625 3.562500 -13.437500 85.000000
-7.218750 21.298828 11.406250 23.250000 -30.500000
-65.875000 14.734375 -10.312500 10.562500 -115.250000
10.968750 -24.156250 -11.000000 -22.062500 34.312500
43.000000 -6.125000 12.125000 1.875000 101.750000
-3.937500 15.593750 1.312500 8.718750 -44.375000
28.390625 -3.328125 -11.812500 -16.421875 -37.875000
-23.687500 -3.781250 25.843750 10.421875 73.000000
-71.859375 -2.250000 17.000000 18.859375 -28.000000
45.281250 -2.250000 -41.546875 -14.937500 -76.750000
30.593750 19.187500 -25.679688 -5.500000 44.250000
-25.062500 -1.281250 38.421875 -0.171875 35.875000
16.781250 -22.000000 24.070312 -0.500000 -27.375000
-11.218750 4.062500 -29.945312 10.125000 7.625000
-13.437500 -0.164062 -10.765625 -9.343750 -1.890625
21.875000 7.078125 13.718750 -0.968750 -6.375000
-3.875000 9.632812 -0.812500 10.078125 9.750000
-8.031250 -10.914062 5.937500 -3.007812 -11.375000
9.343750 7.457031 0.031250 5.367188 6.593750
-2.375000 -8.507812 -8.257812 -8.109375 3.750000
-5.812500 -10.585938 -0.031250 -8.375000 -11.750000
1.593750 10.703125 1.218750 7.375000 4.421875
